~o
<STREAMINFO> 5 1 1 1 1 1
<VECSIZE> 5<NULLD><USER><DIAGC>
~t "TrP_10"
<TRANSP> 3
 0.000000e+00 1.000000e+00 0.000000e+00
 0.000000e+00 0.000000e+00 1.000000e+00
 0.000000e+00 0.000000e+00 0.000000e+00
~t "TrP_1"
<TRANSP> 3
 0.000000e+00 1.000000e+00 0.000000e+00
 0.000000e+00 0.000000e+00 1.000000e+00
 0.000000e+00 0.000000e+00 0.000000e+00
~t "TrP_2"
<TRANSP> 3
 0.000000e+00 1.000000e+00 0.000000e+00
 0.000000e+00 0.000000e+00 1.000000e+00
 0.000000e+00 0.000000e+00 0.000000e+00
~t "TrP_3"
<TRANSP> 3
 0.000000e+00 1.000000e+00 0.000000e+00
 0.000000e+00 0.000000e+00 1.000000e+00
 0.000000e+00 0.000000e+00 0.000000e+00
~t "TrP_4"
<TRANSP> 3
 0.000000e+00 1.000000e+00 0.000000e+00
 0.000000e+00 0.000000e+00 1.000000e+00
 0.000000e+00 0.000000e+00 0.000000e+00
~t "TrP_6"
<TRANSP> 3
 0.000000e+00 1.000000e+00 0.000000e+00
 0.000000e+00 0.000000e+00 1.000000e+00
 0.000000e+00 0.000000e+00 0.000000e+00
~t "TrP_7"
<TRANSP> 3
 0.000000e+00 1.000000e+00 0.000000e+00
 0.000000e+00 0.000000e+00 1.000000e+00
 0.000000e+00 0.000000e+00 0.000000e+00
~t "TrP_8"
<TRANSP> 3
 0.000000e+00 1.000000e+00 0.000000e+00
 0.000000e+00 0.000000e+00 1.000000e+00
 0.000000e+00 0.000000e+00 0.000000e+00
~t "TrP_9"
<TRANSP> 3
 0.000000e+00 1.000000e+00 0.000000e+00
 0.000000e+00 0.000000e+00 1.000000e+00
 0.000000e+00 0.000000e+00 0.000000e+00
~v "varFloor1"
<VARIANCE> 1
 7.805993e-02
~v "varFloor2"
<VARIANCE> 1
 1.600930e-01
~v "varFloor3"
<VARIANCE> 1
 7.674760e-01
~v "varFloor4"
<VARIANCE> 1
 8.903381e-01
~v "varFloor5"
<VARIANCE> 1
 9.033201e-02
~s "dur_s2_120"
<STREAM> 1
<MEAN> 1
 3.934616e+00
<VARIANCE> 1
 2.884319e+00
<GCONST> 2.897166e+00
<STREAM> 2
<MEAN> 1
 2.702636e+00
<VARIANCE> 1
 3.030589e+00
<GCONST> 2.946634e+00
<STREAM> 3
<MEAN> 1
 2.986549e+00
<VARIANCE> 1
 5.977269e+00
<GCONST> 3.625841e+00
<STREAM> 4
<MEAN> 1
 1.644413e+00
<VARIANCE> 1
 9.367131e-01
<GCONST> 1.772499e+00
<STREAM> 5
<MEAN> 1
 1.678692e+00
<VARIANCE> 1
 1.997608e+00
<GCONST> 2.529827e+00
~s "dur_s2_187"
<STREAM> 1
<MEAN> 1
 6.448173e+00
<VARIANCE> 1
 5.916335e+00
<GCONST> 3.615594e+00
<STREAM> 2
<MEAN> 1
 7.596073e+00
<VARIANCE> 1
 7.190681e+00
<GCONST> 3.810663e+00
<STREAM> 3
<MEAN> 1
 2.825510e+00
<VARIANCE> 1
 2.098864e+00
<GCONST> 2.579273e+00
<STREAM> 4
<MEAN> 1
 4.638548e+00
<VARIANCE> 1
 2.695357e+00
<GCONST> 2.829408e+00
<STREAM> 5
<MEAN> 1
 7.601694e+00
<VARIANCE> 1
 7.044109e+00
<GCONST> 3.790069e+00
~s "dur_s2_220"
<STREAM> 1
<MEAN> 1
 1.000026e+00
<VARIANCE> 1
 7.805993e-02
<GCONST> -7.124014e-01
<STREAM> 2
<MEAN> 1
 1.001154e+00
<VARIANCE> 1
 1.600930e-01
<GCONST> 5.876780e-03
<STREAM> 3
<MEAN> 1
 1.000008e+00
<VARIANCE> 1
 7.674760e-01
<GCONST> 1.573229e+00
<STREAM> 4
<MEAN> 1
 1.000013e+00
<VARIANCE> 1
 8.903381e-01
<GCONST> 1.721723e+00
<STREAM> 5
<MEAN> 1
 1.235781e+00
<VARIANCE> 1
 3.527044e-01
<GCONST> 7.957520e-01
~s "dur_s2_300"
<STREAM> 1
<MEAN> 1
 2.968288e+00
<VARIANCE> 1
 1.132519e+00
<GCONST> 1.962321e+00
<STREAM> 2
<MEAN> 1
 5.771440e+00
<VARIANCE> 1
 2.260857e+01
<GCONST> 4.956206e+00
<STREAM> 3
<MEAN> 1
 1.765140e+00
<VARIANCE> 1
 1.471856e+00
<GCONST> 2.224401e+00
<STREAM> 4
<MEAN> 1
 1.442377e+00
<VARIANCE> 1
 8.903381e-01
<GCONST> 1.721723e+00
<STREAM> 5
<MEAN> 1
 1.709583e+00
<VARIANCE> 1
 1.256900e+00
<GCONST> 2.066525e+00
~s "dur_s2_319"
<STREAM> 1
<MEAN> 1
 1.002848e+00
<VARIANCE> 1
 7.805993e-02
<GCONST> -7.124014e-01
<STREAM> 2
<MEAN> 1
 2.503676e+00
<VARIANCE> 1
 5.625438e+00
<GCONST> 3.565176e+00
<STREAM> 3
<MEAN> 1
 1.870278e+00
<VARIANCE> 1
 7.674760e-01
<GCONST> 1.573229e+00
<STREAM> 4
<MEAN> 1
 3.183474e+00
<VARIANCE> 1
 8.903381e-01
<GCONST> 1.721723e+00
<STREAM> 5
<MEAN> 1
 5.580449e+00
<VARIANCE> 1
 3.726602e+00
<GCONST> 3.153374e+00
~s "dur_s2_423"
<STREAM> 1
<MEAN> 1
 3.393062e+00
<VARIANCE> 1
 1.494567e+00
<GCONST> 2.239714e+00
<STREAM> 2
<MEAN> 1
 3.698153e+00
<VARIANCE> 1
 5.942027e+00
<GCONST> 3.619927e+00
<STREAM> 3
<MEAN> 1
 1.883861e+00
<VARIANCE> 1
 8.566263e-01
<GCONST> 1.683124e+00
<STREAM> 4
<MEAN> 1
 3.260814e+00
<VARIANCE> 1
 1.569419e+00
<GCONST> 2.288583e+00
<STREAM> 5
<MEAN> 1
 3.067753e+00
<VARIANCE> 1
 2.500965e+00
<GCONST> 2.754554e+00
~s "dur_s2_439"
<STREAM> 1
<MEAN> 1
 1.316699e+00
<VARIANCE> 1
 2.344504e-01
<GCONST> 3.873656e-01
<STREAM> 2
<MEAN> 1
 1.486260e+00
<VARIANCE> 1
 2.498181e-01
<GCONST> 4.508548e-01
<STREAM> 3
<MEAN> 1
 1.103460e+00
<VARIANCE> 1
 7.674760e-01
<GCONST> 1.573229e+00
<STREAM> 4
<MEAN> 1
 1.000027e+00
<VARIANCE> 1
 8.903381e-01
<GCONST> 1.721723e+00
<STREAM> 5
<MEAN> 1
 1.099979e+00
<VARIANCE> 1
 9.033201e-02
<GCONST> -5.663865e-01
~s "dur_s2_445"
<STREAM> 1
<MEAN> 1
 2.388473e+00
<VARIANCE> 1
 1.271704e+00
<GCONST> 2.078235e+00
<STREAM> 2
<MEAN> 1
 1.007270e+00
<VARIANCE> 1
 1.600930e-01
<GCONST> 5.876780e-03
<STREAM> 3
<MEAN> 1
 1.546993e+00
<VARIANCE> 1
 7.674760e-01
<GCONST> 1.573229e+00
<STREAM> 4
<MEAN> 1
 1.202930e+00
<VARIANCE> 1
 8.903381e-01
<GCONST> 1.721723e+00
<STREAM> 5
<MEAN> 1
 1.678661e+00
<VARIANCE> 1
 3.009585e-01
<GCONST> 6.370941e-01
~s "dur_s2_512"
<STREAM> 1
<MEAN> 1
 8.278683e+00
<VARIANCE> 1
 3.369054e+01
<GCONST> 5.355094e+00
<STREAM> 2
<MEAN> 1
 1.141484e+01
<VARIANCE> 1
 9.312232e+01
<GCONST> 6.371791e+00
<STREAM> 3
<MEAN> 1
 3.996819e+00
<VARIANCE> 1
 2.254637e+01
<GCONST> 4.953451e+00
<STREAM> 4
<MEAN> 1
 2.873678e+01
<VARIANCE> 1
 5.191693e+02
<GCONST> 8.090107e+00
<STREAM> 5
<MEAN> 1
 1.968386e+00
<VARIANCE> 1
 9.033201e-02
<GCONST> -5.663865e-01
~s "dur_s2_543"
<STREAM> 1
<MEAN> 1
 2.234935e+00
<VARIANCE> 1
 1.912946e+00
<GCONST> 2.486521e+00
<STREAM> 2
<MEAN> 1
 2.046016e+00
<VARIANCE> 1
 1.165457e+00
<GCONST> 1.990990e+00
<STREAM> 3
<MEAN> 1
 1.839826e+00
<VARIANCE> 1
 1.884594e+00
<GCONST> 2.471590e+00
<STREAM> 4
<MEAN> 1
 2.107743e+00
<VARIANCE> 1
 2.969888e+00
<GCONST> 2.926401e+00
<STREAM> 5
<MEAN> 1
 1.506048e+00
<VARIANCE> 1
 6.382198e-01
<GCONST> 1.388804e+00
~s "dur_s2_679"
<STREAM> 1
<MEAN> 1
 5.676684e+00
<VARIANCE> 1
 1.144328e+01
<GCONST> 4.275280e+00
<STREAM> 2
<MEAN> 1
 6.554567e+00
<VARIANCE> 1
 1.303280e+01
<GCONST> 4.405346e+00
<STREAM> 3
<MEAN> 1
 9.519539e+00
<VARIANCE> 1
 3.607761e+01
<GCONST> 5.423550e+00
<STREAM> 4
<MEAN> 1
 4.782367e+00
<VARIANCE> 1
 4.564192e+00
<GCONST> 3.356118e+00
<STREAM> 5
<MEAN> 1
 3.818191e+00
<VARIANCE> 1
 3.608877e+00
<GCONST> 3.121274e+00
~s "dur_s2_718"
<STREAM> 1
<MEAN> 1
 1.380909e+00
<VARIANCE> 1
 6.067349e-01
<GCONST> 1.338214e+00
<STREAM> 2
<MEAN> 1
 1.447568e+00
<VARIANCE> 1
 2.866234e-01
<GCONST> 5.882909e-01
<STREAM> 3
<MEAN> 1
 3.079638e+00
<VARIANCE> 1
 2.289200e+00
<GCONST> 2.666079e+00
<STREAM> 4
<MEAN> 1
 4.026782e+00
<VARIANCE> 1
 5.699802e+00
<GCONST> 3.578309e+00
<STREAM> 5
<MEAN> 1
 4.401024e+00
<VARIANCE> 1
 7.277679e+00
<GCONST> 3.822689e+00
~s "dur_s2_759"
<STREAM> 1
<MEAN> 1
 5.076272e+00
<VARIANCE> 1
 5.312768e+00
<GCONST> 3.507990e+00
<STREAM> 2
<MEAN> 1
 4.074992e+00
<VARIANCE> 1
 9.832482e+00
<GCONST> 4.123569e+00
<STREAM> 3
<MEAN> 1
 2.047710e+00
<VARIANCE> 1
 3.369706e+00
<GCONST> 3.052702e+00
<STREAM> 4
<MEAN> 1
 2.933111e+00
<VARIANCE> 1
 4.348470e+00
<GCONST> 3.307701e+00
<STREAM> 5
<MEAN> 1
 2.571721e+00
<VARIANCE> 1
 1.694568e+00
<GCONST> 2.365305e+00
~s "dur_s2_794"
<STREAM> 1
<MEAN> 1
 3.716787e+00
<VARIANCE> 1
 2.995739e+00
<GCONST> 2.935068e+00
<STREAM> 2
<MEAN> 1
 9.860945e+00
<VARIANCE> 1
 2.971333e+01
<GCONST> 5.229473e+00
<STREAM> 3
<MEAN> 1
 3.549267e+00
<VARIANCE> 1
 8.020712e+00
<GCONST> 3.919904e+00
<STREAM> 4
<MEAN> 1
 1.613819e+00
<VARIANCE> 1
 8.903381e-01
<GCONST> 1.721723e+00
<STREAM> 5
<MEAN> 1
 2.628061e+00
<VARIANCE> 1
 3.150375e+00
<GCONST> 2.985399e+00
~s "dur_s2_811"
<STREAM> 1
<MEAN> 1
 3.429421e+00
<VARIANCE> 1
 1.604679e+00
<GCONST> 2.310801e+00
<STREAM> 2
<MEAN> 1
 7.172118e+00
<VARIANCE> 1
 1.129374e+01
<GCONST> 4.262125e+00
<STREAM> 3
<MEAN> 1
 7.807154e+00
<VARIANCE> 1
 2.139612e+01
<GCONST> 4.901087e+00
<STREAM> 4
<MEAN> 1
 3.176407e+00
<VARIANCE> 1
 4.033653e+00
<GCONST> 3.232550e+00
<STREAM> 5
<MEAN> 1
 3.200572e+00
<VARIANCE> 1
 3.361322e+00
<GCONST> 3.050211e+00
~s "dur_s2_1055"
<STREAM> 1
<MEAN> 1
 4.605345e+00
<VARIANCE> 1
 5.422280e+00
<GCONST> 3.528393e+00
<STREAM> 2
<MEAN> 1
 5.045123e+00
<VARIANCE> 1
 7.558479e+00
<GCONST> 3.860547e+00
<STREAM> 3
<MEAN> 1
 3.619351e+00
<VARIANCE> 1
 4.456479e+00
<GCONST> 3.332236e+00
<STREAM> 4
<MEAN> 1
 3.980627e+00
<VARIANCE> 1
 1.088133e+00
<GCONST> 1.922341e+00
<STREAM> 5
<MEAN> 1
 3.679900e+00
<VARIANCE> 1
 3.980758e-01
<GCONST> 9.167643e-01
~s "dur_s2_23"
<STREAM> 1
<MEAN> 1
 4.113079e+00
<VARIANCE> 1
 6.947407e+00
<GCONST> 3.776246e+00
<STREAM> 2
<MEAN> 1
 3.461752e+00
<VARIANCE> 1
 6.676454e+00
<GCONST> 3.736464e+00
<STREAM> 3
<MEAN> 1
 3.830331e+00
<VARIANCE> 1
 1.529435e+00
<GCONST> 2.262775e+00
<STREAM> 4
<MEAN> 1
 3.755478e+00
<VARIANCE> 1
 2.108847e+00
<GCONST> 2.584019e+00
<STREAM> 5
<MEAN> 1
 1.000000e+00
<VARIANCE> 1
 9.033201e-02
<GCONST> -5.663865e-01
~s "dur_s2_40"
<STREAM> 1
<MEAN> 1
 1.795167e+00
<VARIANCE> 1
 1.641038e-01
<GCONST> 3.062069e-02
<STREAM> 2
<MEAN> 1
 1.791648e+00
<VARIANCE> 1
 1.001665e+00
<GCONST> 1.839541e+00
<STREAM> 3
<MEAN> 1
 3.111858e+01
<VARIANCE> 1
 8.204852e+02
<GCONST> 8.547773e+00
<STREAM> 4
<MEAN> 1
 5.985334e+00
<VARIANCE> 1
 4.388782e+01
<GCONST> 5.619514e+00
<STREAM> 5
<MEAN> 1
 4.860878e+00
<VARIANCE> 1
 2.644378e+01
<GCONST> 5.112898e+00
~s "dur_s2_81"
<STREAM> 1
<MEAN> 1
 4.270799e+00
<VARIANCE> 1
 1.964931e+01
<GCONST> 4.815919e+00
<STREAM> 2
<MEAN> 1
 1.560941e+00
<VARIANCE> 1
 1.150295e+00
<GCONST> 1.977895e+00
<STREAM> 3
<MEAN> 1
 1.986481e+00
<VARIANCE> 1
 1.229584e+00
<GCONST> 2.044553e+00
<STREAM> 4
<MEAN> 1
 2.560311e+00
<VARIANCE> 1
 3.830949e+00
<GCONST> 3.180990e+00
<STREAM> 5
<MEAN> 1
 1.816117e+00
<VARIANCE> 1
 1.184539e+00
<GCONST> 2.007231e+00
~s "dur_s2_91"
<STREAM> 1
<MEAN> 1
 3.871168e+00
<VARIANCE> 1
 2.363743e+00
<GCONST> 2.698123e+00
<STREAM> 2
<MEAN> 1
 4.018944e+00
<VARIANCE> 1
 5.253759e+00
<GCONST> 3.496821e+00
<STREAM> 3
<MEAN> 1
 3.687253e+00
<VARIANCE> 1
 4.895790e+00
<GCONST> 3.426253e+00
<STREAM> 4
<MEAN> 1
 4.212098e+00
<VARIANCE> 1
 5.524883e+00
<GCONST> 3.547139e+00
<STREAM> 5
<MEAN> 1
 4.268019e+00
<VARIANCE> 1
 7.052195e+00
<GCONST> 3.791216e+00
~h "w~@-lw+d=r:3_1/A/0_0_2/B/0-0-3:1-1&3-5#1-5$1-3>2-1<2-1|@/C/1+1+3/D/content_2/E/md+1:2+5&2+3#1+1/F/content_1/G/0_0/H/7=6:1=1&L-L%/I/0_0/J/7+6-1"
<BEGINHMM>
<NUMSTATES> 3
<STATE> 2
~s "dur_s2_81"
~t "TrP_1"
<ENDHMM>
~h "aU~t-w+E=n:1_3/A/1_0_2/B/1-0-3:1-1&6-2#3-2$2-2>1-1<2-1|E/C/1+1+3/D/content_1/E/wp+1:5+2&4+1#1+1/F/content_1/G/0_0/H/7=6:1=1&L-L%/I/0_0/J/7+6-1"
<BEGINHMM>
<NUMSTATES> 3
<STATE> 2
~s "dur_s2_543"
~t "TrP_9"
<ENDHMM>
~h "xx~xx-#+p=eI:xx_xx/A/0_0_0/B/xx-xx-xx:xx-xx&xx-xx#xx-xx$xx-xx>xx-xx<xx-xx|xx/C/1+1+2/D/0_0/E/xx+xx:xx+xx&xx+xx#xx+xx/F/content_2/G/0_0/H/xx=xx:1=1&0/I/7_6/J/7+6-1"
<BEGINHMM>
<NUMSTATES> 3
<STATE> 2
~s "dur_s2_40"
~t "TrP_7"
<ENDHMM>
~h "E~t-#+xx=xx:xx_xx/A/1_1_3/B/xx-xx-xx:xx-xx&xx-xx#xx-xx$xx-xx>xx-xx<xx-xx|xx/C/0+0+0/D/content_1/E/xx+xx:xx+xx&xx+xx#xx+xx/F/0_0/G/7_6/H/xx=xx:1=1&0/I/0_0/J/7+6-1"
<BEGINHMM>
<NUMSTATES> 3
<STATE> 2
~s "dur_s2_512"
~t "TrP_8"
<ENDHMM>
~h "p~eI-p+@=w:1_2/A/1_1_2/B/0-0-2:2-1&2-6#1-5$1-3>1-2<1-2|@/C/0+0+3/D/0_0/E/content+2:1+6&1+3#0+2/F/md_1/G/0_0/H/7=6:1=1&L-L%/I/0_0/J/7+6-1"
<BEGINHMM>
<NUMSTATES> 3
<STATE> 2
~s "dur_s2_423"
~t "TrP_10"
<ENDHMM>
~h "#~p-eI+p=@:2_1/A/0_0_0/B/1-1-2:1-2&1-7#1-5$1-3>0-3<0-3|eI/C/0+0+2/D/0_0/E/content+2:1+6&1+3#0+2/F/md_1/G/0_0/H/7=6:1=1&L-L%/I/0_0/J/7+6-1"
<BEGINHMM>
<NUMSTATES> 3
<STATE> 2
~s "dur_s2_811"
~t "TrP_3"
<ENDHMM>
~h "w~E-n+w=E:3_1/A/1_0_2/B/1-0-3:1-1&6-2#3-2$2-2>1-1<2-1|E/C/1+1+3/D/content_1/E/wp+1:5+2&4+1#1+1/F/content_1/G/0_0/H/7=6:1=1&L-L%/I/0_0/J/7+6-1"
<BEGINHMM>
<NUMSTATES> 3
<STATE> 2
~s "dur_s2_300"
~t "TrP_8"
<ENDHMM>
~h "r~aI-aU+t=w:1_2/A/1_1_3/B/1-0-2:1-1&5-3#2-3$2-2>1-1<1-2|aU/C/1+0+3/D/content_1/E/content+1:4+3&3+1#1+2/F/wp_1/G/0_0/H/7=6:1=1&L-L%/I/0_0/J/7+6-1"
<BEGINHMM>
<NUMSTATES> 3
<STATE> 2
~s "dur_s2_679"
~t "TrP_7"
<ENDHMM>
~h "@~lw-d+r=aI:1_3/A/0_0_3/B/1-1-3:1-1&4-4#1-4$1-2>3-1<3-3|aI/C/1+0+2/D/md_1/E/content+1:3+4&2+2#2+1/F/content_1/G/0_0/H/7=6:1=1&L-L%/I/0_0/J/7+6-1"
<BEGINHMM>
<NUMSTATES> 3
<STATE> 2
~s "dur_s2_23"
~t "TrP_3"
<ENDHMM>
~h "eI~p-@+w=@:2_1/A/1_1_2/B/0-0-2:2-1&2-6#1-5$1-3>1-2<1-2|@/C/0+0+3/D/0_0/E/content+2:1+6&1+3#0+2/F/md_1/G/0_0/H/7=6:1=1&L-L%/I/0_0/J/7+6-1"
<BEGINHMM>
<NUMSTATES> 3
<STATE> 2
~s "dur_s2_439"
~t "TrP_2"
<ENDHMM>
~h "n~w-E+t=#:2_2/A/1_0_3/B/1-1-3:1-1&7-1#4-1$2-1>1-0<3-0|E/C/0+0+0/D/wp_1/E/content+1:6+1&4+0#2+0/F/0_0/G/0_0/H/7=6:1=1&L-L%/I/0_0/J/7+6-1"
<BEGINHMM>
<NUMSTATES> 3
<STATE> 2
~s "dur_s2_794"
~t "TrP_6"
<ENDHMM>
~h "xx~#-p+eI=p:1_2/A/0_0_0/B/1-1-2:1-2&1-7#1-5$1-3>0-3<0-3|eI/C/0+0+2/D/0_0/E/content+2:1+6&1+3#0+2/F/md_1/G/0_0/H/7=6:1=1&L-L%/I/0_0/J/7+6-1"
<BEGINHMM>
<NUMSTATES> 3
<STATE> 2
~s "dur_s2_319"
~t "TrP_10"
<ENDHMM>
~h "E~n-w+E=t:1_3/A/1_0_3/B/1-1-3:1-1&7-1#4-1$2-1>1-0<3-0|E/C/0+0+0/D/wp_1/E/content+1:6+1&4+0#2+0/F/0_0/G/0_0/H/7=6:1=1&L-L%/I/0_0/J/7+6-1"
<BEGINHMM>
<NUMSTATES> 3
<STATE> 2
~s "dur_s2_1055"
~t "TrP_9"
<ENDHMM>
~h "t~w-E+n=w:2_2/A/1_0_2/B/1-0-3:1-1&6-2#3-2$2-2>1-1<2-1|E/C/1+1+3/D/content_1/E/wp+1:5+2&4+1#1+1/F/content_1/G/0_0/H/7=6:1=1&L-L%/I/0_0/J/7+6-1"
<BEGINHMM>
<NUMSTATES> 3
<STATE> 2
~s "dur_s2_445"
~t "TrP_6"
<ENDHMM>
~h "p~@-w+@=lw:1_3/A/0_0_2/B/0-0-3:1-1&3-5#1-5$1-3>2-1<2-1|@/C/1+1+3/D/content_2/E/md+1:2+5&2+3#1+1/F/content_1/G/0_0/H/7=6:1=1&L-L%/I/0_0/J/7+6-1"
<BEGINHMM>
<NUMSTATES> 3
<STATE> 2
~s "dur_s2_759"
~t "TrP_9"
<ENDHMM>
~h "lw~d-r+aI=aU:2_2/A/0_0_3/B/1-1-3:1-1&4-4#1-4$1-2>3-1<3-3|aI/C/1+0+2/D/md_1/E/content+1:3+4&2+2#2+1/F/content_1/G/0_0/H/7=6:1=1&L-L%/I/0_0/J/7+6-1"
<BEGINHMM>
<NUMSTATES> 3
<STATE> 2
~s "dur_s2_718"
~t "TrP_2"
<ENDHMM>
~h "@~w-@+lw=d:2_2/A/0_0_2/B/0-0-3:1-1&3-5#1-5$1-3>2-1<2-1|@/C/1+1+3/D/content_2/E/md+1:2+5&2+3#1+1/F/content_1/G/0_0/H/7=6:1=1&L-L%/I/0_0/J/7+6-1"
<BEGINHMM>
<NUMSTATES> 3
<STATE> 2
~s "dur_s2_220"
~t "TrP_2"
<ENDHMM>
~h "aI~aU-t+w=E:2_1/A/1_1_3/B/1-0-2:1-1&5-3#2-3$2-2>1-1<1-2|aU/C/1+0+3/D/content_1/E/content+1:4+3&3+1#1+2/F/wp_1/G/0_0/H/7=6:1=1&L-L%/I/0_0/J/7+6-1"
<BEGINHMM>
<NUMSTATES> 3
<STATE> 2
~s "dur_s2_120"
~t "TrP_4"
<ENDHMM>
~h "d~r-aI+aU=t:3_1/A/0_0_3/B/1-1-3:1-1&4-4#1-4$1-2>3-1<3-3|aI/C/1+0+2/D/md_1/E/content+1:3+4&2+2#2+1/F/content_1/G/0_0/H/7=6:1=1&L-L%/I/0_0/J/7+6-1"
<BEGINHMM>
<NUMSTATES> 3
<STATE> 2
~s "dur_s2_91"
~t "TrP_4"
<ENDHMM>
~h "w~E-t+#=xx:3_1/A/1_0_3/B/1-1-3:1-1&7-1#4-1$2-1>1-0<3-0|E/C/0+0+0/D/wp_1/E/content+1:6+1&4+0#2+0/F/0_0/G/0_0/H/7=6:1=1&L-L%/I/0_0/J/7+6-1"
<BEGINHMM>
<NUMSTATES> 3
<STATE> 2
~s "dur_s2_187"
~t "TrP_4"
<ENDHMM>
